<?xml version="1.0"?>
<opencv_storage>
<cascade>
  <stageType>BOOST</stageType>
  <featureType>HAAR</featureType>
  <height>30</height>
  <width>30</width>
  <stageParams>
    <boostType>GAB</boostType>
    <minHitRate>9.9500000476837158e-01</minHitRate>
    <maxFalseAlarm>5.0000000000000000e-01</maxFalseAlarm>
    <weightTrimRate>9.4999998807907104e-01</weightTrimRate>
    <maxDepth>1</maxDepth>
    <maxWeakCount>100</maxWeakCount></stageParams>
  <featureParams>
    <maxCatCount>0</maxCatCount>
    <featSize>1</featSize>
    <mode>BASIC</mode></featureParams>
  <stageNum>4</stageNum>
  <stages>
    <!-- stage 0 -->
    <_>
      <maxWeakCount>2</maxWeakCount>
      <stageThreshold>3.0305983498692513e-02</stageThreshold>
      <weakClassifiers>
        <_>
          <internalNodes>
            0 -1 5 -1.0567357530817389e-03</internalNodes>
          <leafValues>
            9.8173910379409790e-01 -9.6192383766174316e-01</leafValues></_>
        <_>
          <internalNodes>
            0 -1 2 -3.9171036332845688e-03</internalNodes>
          <leafValues>
            9.9222981929779053e-01 -9.0314245223999023e-01</leafValues></_></weakClassifiers></_>
    <!-- stage 1 -->
    <_>
      <maxWeakCount>2</maxWeakCount>
      <stageThreshold>9.6367955207824707e-02</stageThreshold>
      <weakClassifiers>
        <_>
          <internalNodes>
            0 -1 1 -2.1550714969635010e-02</internalNodes>
          <leafValues>
            -8.9494162797927856e-01 9.7709250450134277e-01</leafValues></_>
        <_>
          <internalNodes>
            0 -1 4 5.2226837724447250e-03</internalNodes>
          <leafValues>
            -8.3924794197082520e-01 9.9130958318710327e-01</leafValues></_></weakClassifiers></_>
    <!-- stage 2 -->
    <_>
      <maxWeakCount>2</maxWeakCount>
      <stageThreshold>1.4780133962631226e-01</stageThreshold>
      <weakClassifiers>
        <_>
          <internalNodes>
            0 -1 3 -1.1817686259746552e-02</internalNodes>
          <leafValues>
            1. -8.4162062406539917e-01</leafValues></_>
        <_>
          <internalNodes>
            0 -1 6 8.1445486284792423e-04</internalNodes>
          <leafValues>
            -8.2610994577407837e-01 9.8942196369171143e-01</leafValues></_></weakClassifiers></_>
    <!-- stage 3 -->
    <_>
      <maxWeakCount>1</maxWeakCount>
      <stageThreshold>1.</stageThreshold>
      <weakClassifiers>
        <_>
          <internalNodes>
            0 -1 0 3.2704579643905163e-03</internalNodes>
          <leafValues>
            1. -1.</leafValues></_></weakClassifiers></_></stages>
  <features>
    <_>
      <rects>
        <_>
          0 0 4 4 -1.</_>
        <_>
          0 0 2 2 2.</_>
        <_>
          2 2 2 2 2.</_></rects>
      <tilted>0</tilted></_>
    <_>
      <rects>
        <_>
          0 0 30 18 -1.</_>
        <_>
          0 6 30 6 3.</_></rects>
      <tilted>0</tilted></_>
    <_>
      <rects>
        <_>
          1 11 24 10 -1.</_>
        <_>
          9 11 8 10 3.</_></rects>
      <tilted>0</tilted></_>
    <_>
      <rects>
        <_>
          12 7 4 15 -1.</_>
        <_>
          12 12 4 5 3.</_></rects>
      <tilted>0</tilted></_>
    <_>
      <rects>
        <_>
          12 13 10 4 -1.</_>
        <_>
          17 13 5 4 2.</_></rects>
      <tilted>0</tilted></_>
    <_>
      <rects>
        <_>
          13 0 3 27 -1.</_>
        <_>
          13 9 3 9 3.</_></rects>
      <tilted>0</tilted></_>
    <_>
      <rects>
        <_>
          13 12 6 3 -1.</_>
        <_>
          16 12 3 3 2.</_></rects>
      <tilted>0</tilted></_></features></cascade>
</opencv_storage>
